
\data\
ngram 1=12

\1-grams:
-0.6079119	</s>
-99	<s>
-1.1503	eight
-1.162199	five
-1.037261	four
-1.303528	nine
-0.9550737	one
-1.095252	seven
-1.287138	six
-1.187023	three
-0.9861079	two
-1.213352	zero

\end\
